48 16
09a53393 0.06485714 -0.9448561 -0.06177584 0.30136737 -0.12864566 0.4995959 0.9116096 -0.21386674 -0.14583062 0.10648615 0.55145574 0.27745044 0.27631548 0.20346874 -0.40572685 0.7181374
5d5de21c -0.24975322 -0.64991343 0.15352964 -0.1313087 -0.21335998 0.14675313 0.91365093 0.041885063 -0.44384894 0.8072535 0.42798856 0.12641132 -0.12572445 -0.27612522 -0.05417144 0.49208516
d38aa58d 0.13142428 -0.66851765 -0.03207615 -0.06893203 -0.5441233 0.21472141 0.98817736 0.12188124 -0.15549563 0.3323122 0.2376443 0.20277472 -0.1589062 -0.010085199 -0.6841023 0.5813729
e3df2680 0.40139252 -1.0116235 0.45780918 0.11776183 -0.39364403 -0.09429071 0.8729264 -0.12458858 -0.06675074 0.6768754 0.25861096 0.2713089 -0.03300172 -0.09030295 -0.08755813 0.41684684
dba996ef 0.16090776 -0.25166756 0.0017564981 0.2276331 -0.3078411 0.24161756 0.6853157 0.64450955 -0.3061119 0.9969978 0.6655522 0.41622862 -0.07781377 0.23287888 0.09446143 0.39042926
d63ef163 -0.010584411 -0.34837064 0.12298122 -0.026933895 -0.5087614 -0.015832145 0.7533157 -0.06890736 -0.4143657 0.81466854 0.59068906 0.22445126 -0.6053662 0.12719183 0.030742195 0.3529018
3d91fa85 0.8873815 -0.87505233 -0.15533708 -0.084113695 0.28875977 0.97025675 0.657944 0.7651571 0.5175813 -0.26710978 0.63147485 -0.56154555 -1.1465963 -0.654054 0.6193782 0.918414
626085d5 -0.08271951 -0.27776846 0.11287796 0.28064945 1.7128252 -0.055936623 -1.9053386 -0.37385657 -0.31083083 1.4118013 0.070035025 -0.013422049 -1.213927 0.8455571 -1.3704515 0.6752218
81cee340 -0.026274525 -0.45829955 0.22028832 -0.0075605484 0.32043105 -0.37597802 -0.55510193 0.46213648 0.07838944 0.874023 0.18572293 -0.31622517 -0.59053916 0.66362315 -0.29345018 0.25646716
32777b38 0.11242736 -0.57388043 0.3913588 0.09965104 -0.4039246 0.4841087 0.58751744 0.11032223 -0.3885934 0.6459132 0.6750408 0.2778463 -0.22845821 -0.044162408 -0.29479936 0.68237406
d6b7b743 1.267285 0.90097195 -0.19836967 0.44989747 0.23689899 -0.71363866 -0.5365185 -0.6837224 -0.6854881 1.4713745 0.27694386 0.2987119 -0.58061546 -0.45128694 -0.63965106 1.8885771
73c2ec69 0.5508539 0.6866192 0.6067779 1.0201254 1.0860217 -1.0161077 -0.012311777 -0.067132495 -0.19428958 0.8055779 0.9525777 0.86975116 -1.0241814 -0.66437376 -1.2296213 1.293419
728076ac -0.23911765 0.76742786 0.13976994 0.80825543 -0.068964325 0.69964176 -0.6201142 0.0010581056 -0.293736 1.9275216 0.23304258 1.198669 -0.7761021 -0.33478463 -0.22200656 1.0792865
40651754 0.5682663 0.5091086 0.30461222 0.26941347 0.012693014 -0.001148759 -0.85572505 0.27321267 -0.9713021 1.66858 1.4082199 0.181158 -0.52438706 -0.95413417 -1.3008898 0.4436416
2e68ccc3 0.10978605 0.17330897 -0.11749095 0.72302747 0.22414741 -0.2767483 0.03380122 0.31040278 -0.8736052 1.077891 0.9486376 0.5034872 -0.4169648 -0.12832774 0.023634618 0.74483573
bcc910df -0.115702875 0.9324196 2.8368158 1.3480688 -1.1075227 1.5809675 0.6146296 2.1714563 -2.4695952 2.4347546 -3.564569 0.35127267 0.1856137 -0.48905548 -0.9700855 -0.37151152
0567184d -0.34854645 -0.5670359 -1.0815059 0.42445552 0.43304735 -1.0205003 0.14021963 -0.30182442 0.8876849 1.8756046 1.0932093 0.32184258 -0.56820774 -1.2890577 -0.49305573 -0.11759035
8f2bc724 0.3266989 -0.049474526 -0.61768216 0.8578763 0.6655085 -0.4100503 0.13132201 -0.10040266 -0.46342453 0.6503215 0.28931004 0.038194835 -1.0398501 0.60745966 -0.22662823 -0.32417613
c294d20f -0.0727262 -0.34041107 0.15092388 0.4292501 0.2927165 0.12387789 0.031884015 -0.17410968 -0.72282344 0.46561217 0.48464295 0.09046811 -0.23879887 -0.1243895 -0.15495951 0.6184727
75627efd 0.45465 0.6956646 0.07354034 0.1238223 0.25212187 0.64948106 -2.1556756 -1.2790121 -0.24107336 1.3514867 0.9090136 1.0580332 -1.1062251 -0.47203177 -1.5664754 0.5551769
54e5f6b4 0.3226517 0.10604592 -0.6319357 0.112381935 -0.0149665885 -0.1176148 -2.0223827 -1.4512324 -0.4450794 1.3210938 0.4976855 1.0708252 -1.0388559 -0.9540511 -1.5617582 0.43581
69bca6e5 -0.36924732 0.14486687 -0.1486086 0.61663413 1.2471077 0.6982979 -1.8018756 -1.4023291 0.16604467 2.2677424 0.4956636 1.1234931 -0.47050023 -1.7436509 -1.7566842 0.06808256
d013b7a3 0.2377104 0.21316947 -0.3711515 0.15707472 1.3606259 0.6082553 -1.825889 -1.2925924 0.31384182 2.033131 0.6933146 1.6041658 -0.54342073 -1.5006216 -1.7575271 0.173474
ace40671 -0.1248188 -0.045092423 -0.36340502 0.4461971 1.2911284 0.46537057 -1.8654909 -1.4073423 0.37924346 1.943249 0.8970404 1.3657253 -0.4311632 -1.6438522 -1.7270195 0.22239597
b15ffff8 -0.24419464 0.61035883 -0.21792042 0.42744526 0.99772334 0.4914867 -1.4844315 -1.0030239 0.105819196 1.8412862 0.46462017 0.92399067 -0.481851 -1.4135102 -1.5849501 0.6755044
f266840a -0.18796887 0.35371208 -0.21557908 0.40003482 1.3932561 0.750781 -1.6625731 -1.3821809 0.4650422 1.9802227 0.7608621 1.3391361 -0.073216654 -1.4769315 -1.6972485 0.17457454
f79898ae -0.42356512 0.8015799 1.3519067 0.10128214 0.19025834 -0.09648643 -0.30981177 -0.6064801 -0.34416592 1.7086757 0.62844086 0.8918455 -1.2864187 -0.5969447 -1.1248565 1.6292919
461a1574 -0.32546192 0.42286313 -0.3513715 0.5425734 1.1406035 0.35889998 -1.6882616 -1.1547657 0.0401114 2.0904977 0.5993122 1.1740361 -0.54543954 -1.4414873 -1.785203 -0.018481782
2f85639c -0.32985765 0.25816712 -0.55527735 0.5112142 1.1353468 0.51301396 -1.8459057 -1.5167494 0.23029871 2.0166984 0.74942297 1.315198 -0.4705015 -1.4870403 -1.7061753 0.19473475
f0d1ff15 -0.26800328 0.55011326 -0.15775584 0.36456564 0.92895836 0.44496056 -1.502123 -0.8301332 0.12492769 2.0333407 0.35795516 0.9411136 -0.13771644 -1.0149289 -1.5344652 0.035714846
506b3c4b -0.02346481 0.2040863 -0.4759351 0.5644131 0.70640045 0.5940545 -1.6982914 -1.1944209 0.15451093 1.8889759 0.34605324 1.3300856 -0.09522359 -1.1400054 -1.3322681 0.24956308
71cf10b1 -0.61166793 0.5961761 -0.13309929 0.2360488 1.137438 0.29287174 -1.5210025 -0.7545104 0.114239 2.069543 0.67944527 0.9614174 -0.29346713 -1.2356253 -1.6701169 -0.07876808
124068c6 -0.31576365 0.443741 -0.4446888 0.5550953 0.8116812 0.26787937 -1.4640545 -0.7731053 0.14055878 1.967878 0.18178219 1.1924562 -0.25045326 -0.94219375 -1.4154801 0.07594514
234302e6 -0.5664032 0.26174995 -0.32294515 0.39313644 0.8979832 0.39542818 -1.4967477 -0.93658197 0.25862563 1.9964222 0.6665297 1.0571816 0.06174087 -1.111269 -1.4090962 0.18464224
e024fa48 -0.27654654 0.6988372 -0.27438584 0.35627544 0.91708386 0.26603085 -1.5145802 -0.9210942 0.14202312 1.781368 0.519504 1.0300399 -0.24347484 -0.9962982 -1.5421749 0.25108695
78915d3a -0.20103267 0.5818304 -0.31718472 0.3726689 0.84282106 0.46379858 -1.613022 -0.99080247 0.13161632 1.7955049 0.4140527 1.064301 -0.29247743 -0.9710729 -1.4001651 0.37035745
fcd37a6d -0.2618932 0.5961639 -0.17422895 0.22178808 0.52349037 0.1442835 -1.2956858 -0.5148294 0.2705961 1.7506075 0.5194143 0.9545118 -0.22978361 -0.81000584 -0.9938676 0.25461856
4610d0f1 -0.19539502 0.83758235 0.5357106 -0.24705084 0.78032166 0.05625557 -0.7889619 -0.5438027 -0.36619967 1.1983238 0.5025298 0.35535988 -0.7319055 -0.63094497 -0.82478285 0.5407049
68429f34 -0.29192397 0.7056353 0.50364697 -0.21792088 0.68864197 0.008317283 -0.8979269 -0.6779651 -0.25909728 1.335011 0.39126366 0.329925 -0.7208309 -0.6331962 -0.9584411 0.6240814
c61b491b -0.43792608 0.6996485 -0.18083681 0.21754688 0.9733478 0.26474503 -1.5489249 -0.7092726 0.034604024 1.8460852 0.58693194 0.89811254 -0.4126963 -1.0840712 -1.3908095 0.25707045
2ecc047e -0.06105267 0.64746946 -0.1167723 0.041469034 0.9232896 0.27876413 -1.5074053 -0.73938906 -0.042029478 1.646859 0.49912745 0.9109508 -0.42013 -0.9601512 -1.1833918 0.27588436
5c88d71b -0.6304567 0.3945302 -0.21437684 0.3306956 0.68635136 0.2821089 -0.9974617 -0.52195174 0.1483556 1.4725277 0.411711 0.7116698 -0.12880439 -0.65701705 -1.0491941 0.17099015
06d16156 -0.48933455 0.5951517 -0.16698578 0.371569 0.7775066 0.3145176 -1.266835 -0.7423962 0.095340274 1.5378267 0.599954 0.72379655 -0.35567376 -0.68948567 -1.1380454 0.27731517
ff00cd08 -0.1478613 0.48479483 -0.3143689 0.27904832 0.6198743 0.2399223 -1.2523975 -0.5492063 0.16837719 1.6689787 0.2258269 0.98805165 -0.2830088 -0.74831116 -1.1850692 0.051681858
13eb7010 -0.2147721 0.28903836 0.6281051 -0.19207193 0.3188694 0.20100687 -0.9102012 -0.2542218 -0.72226334 1.0141461 0.70525545 0.36323842 -0.7545324 -0.6440923 -0.723845 0.2924018
559305d8 -0.30393335 0.5479978 -0.13856347 0.1720758 0.5521619 0.18019052 -1.0845058 -0.44609046 0.14140412 1.4496527 0.29078636 0.8359854 -0.2909576 -0.4797614 -0.9469356 0.38662532
0f86472a -0.23643059 0.48466724 -0.22853865 0.21671323 0.5539912 0.20584063 -0.96824086 -0.4582021 0.088347025 1.2308805 0.29484612 0.7548798 -0.2822593 -0.4222306 -0.7878737 0.23162626
b65fc512 -0.017002987 0.019634137 0.008491481 -0.018296383 -0.030399393 -0.016373694 -0.030118275 -0.0056530274 -0.01343446 0.023307621 0.032643795 0.0022225403 -0.016308812 -0.04623865 -0.010347799 0.023789052
